<?xml version="1.0"?>
<opencv_storage>
<cascade>
  <stageType>BOOST</stageType>
  <featureType>HAAR</featureType>
  <height>30</height>
  <width>30</width>
  <stageParams>
    <boostType>GAB</boostType>
    <minHitRate>9.9500000476837158e-01</minHitRate>
    <maxFalseAlarm>5.0000000000000000e-01</maxFalseAlarm>
    <weightTrimRate>9.4999998807907104e-01</weightTrimRate>
    <maxDepth>1</maxDepth>
    <maxWeakCount>100</maxWeakCount></stageParams>
  <featureParams>
    <maxCatCount>0</maxCatCount>
    <featSize>1</featSize>
    <mode>BASIC</mode></featureParams>
  <stageNum>17</stageNum>
  <stages>
    <!-- stage 0 -->
    <_>
      <maxWeakCount>2</maxWeakCount>
      <stageThreshold>-1.2908266484737396e-01</stageThreshold>
      <weakClassifiers>
        <_>
          <internalNodes>
            0 -1 25 -6.6967736929655075e-03</internalNodes>
          <leafValues>
            9.5121949911117554e-01 -7.7358490228652954e-01</leafValues></_>
        <_>
          <internalNodes>
            0 -1 13 1.1267786612734199e-04</internalNodes>
          <leafValues>
            6.4450222253799438e-01 -1.</leafValues></_></weakClassifiers></_>
    <!-- stage 1 -->
    <_>
      <maxWeakCount>2</maxWeakCount>
      <stageThreshold>1.7774373292922974e-01</stageThreshold>
      <weakClassifiers>
        <_>
          <internalNodes>
            0 -1 29 5.5416231043636799e-03</internalNodes>
          <leafValues>
            -7.7215188741683960e-01 9.3548387289047241e-01</leafValues></_>
        <_>
          <internalNodes>
            0 -1 31 -3.7164794048294425e-04</internalNodes>
          <leafValues>
            9.4989562034606934e-01 -6.7583405971527100e-01</leafValues></_></weakClassifiers></_>
    <!-- stage 2 -->
    <_>
      <maxWeakCount>2</maxWeakCount>
      <stageThreshold>1.7729420959949493e-01</stageThreshold>
      <weakClassifiers>
        <_>
          <internalNodes>
            0 -1 26 5.7888524606823921e-03</internalNodes>
          <leafValues>
            -6.8831169605255127e-01 7.8125000000000000e-01</leafValues></_>
        <_>
          <internalNodes>
            0 -1 18 -2.3165361490100622e-03</internalNodes>
          <leafValues>
            8.6560589075088501e-01 -5.0090283155441284e-01</leafValues></_></weakClassifiers></_>
    <!-- stage 3 -->
    <_>
      <maxWeakCount>2</maxWeakCount>
      <stageThreshold>-1.3759545981884003e-01</stageThreshold>
      <weakClassifiers>
        <_>
          <internalNodes>
            0 -1 4 1.9086167216300964e-02</internalNodes>
          <leafValues>
            -6.2264150381088257e-01 7.5609755516052246e-01</leafValues></_>
        <_>
          <internalNodes>
            0 -1 8 7.9658839240437374e-06</internalNodes>
          <leafValues>
            4.8504605889320374e-01 -1.</leafValues></_></weakClassifiers></_>
    <!-- stage 4 -->
    <_>
      <maxWeakCount>2</maxWeakCount>
      <stageThreshold>-1.7117823660373688e-01</stageThreshold>
      <weakClassifiers>
        <_>
          <internalNodes>
            0 -1 2 4.7770362347364426e-02</internalNodes>
          <leafValues>
            -6.1290323734283447e-01 7.0078742504119873e-01</leafValues></_>
        <_>
          <internalNodes>
            0 -1 32 -6.6587221226654947e-05</internalNodes>
          <leafValues>
            -1. 4.4172498583793640e-01</leafValues></_></weakClassifiers></_>
    <!-- stage 5 -->
    <_>
      <maxWeakCount>3</maxWeakCount>
      <stageThreshold>-5.6391137838363647e-01</stageThreshold>
      <weakClassifiers>
        <_>
          <internalNodes>
            0 -1 22 5.4653482511639595e-03</internalNodes>
          <leafValues>
            -5.7647061347961426e-01 8.2142859697341919e-01</leafValues></_>
        <_>
          <internalNodes>
            0 -1 6 -1.1564631677174475e-05</internalNodes>
          <leafValues>
            -9.1772443056106567e-01 4.8853659629821777e-01</leafValues></_>
        <_>
          <internalNodes>
            0 -1 3 -3.1290981918573380e-02</internalNodes>
          <leafValues>
            9.2795681953430176e-01 -4.7597739100456238e-01</leafValues></_></weakClassifiers></_>
    <!-- stage 6 -->
    <_>
      <maxWeakCount>2</maxWeakCount>
      <stageThreshold>1.9670145213603973e-01</stageThreshold>
      <weakClassifiers>
        <_>
          <internalNodes>
            0 -1 23 -4.3540197657421231e-04</internalNodes>
          <leafValues>
            7.4045801162719727e-01 -6.8211919069290161e-01</leafValues></_>
        <_>
          <internalNodes>
            0 -1 5 -1.0473629459738731e-02</internalNodes>
          <leafValues>
            9.2044848203659058e-01 -5.4375654458999634e-01</leafValues></_></weakClassifiers></_>
    <!-- stage 7 -->
    <_>
      <maxWeakCount>1</maxWeakCount>
      <stageThreshold>6.3313609361648560e-01</stageThreshold>
      <weakClassifiers>
        <_>
          <internalNodes>
            0 -1 17 3.6617435398511589e-04</internalNodes>
          <leafValues>
            6.3313609361648560e-01 -1.</leafValues></_></weakClassifiers></_>
    <!-- stage 8 -->
    <_>
      <maxWeakCount>3</maxWeakCount>
      <stageThreshold>-3.9180672168731689e-01</stageThreshold>
      <weakClassifiers>
        <_>
          <internalNodes>
            0 -1 9 4.7579962760210037e-02</internalNodes>
          <leafValues>
            -6.9032257795333862e-01 7.9527556896209717e-01</leafValues></_>
        <_>
          <internalNodes>
            0 -1 11 -2.4609079957008362e-01</internalNodes>
          <leafValues>
            8.2713794708251953e-01 -5.1335400342941284e-01</leafValues></_>
        <_>
          <internalNodes>
            0 -1 19 -1.5510239172726870e-03</internalNodes>
          <leafValues>
            8.2872676849365234e-01 -5.2862209081649780e-01</leafValues></_></weakClassifiers></_>
    <!-- stage 9 -->
    <_>
      <maxWeakCount>1</maxWeakCount>
      <stageThreshold>3.8693466782569885e-01</stageThreshold>
      <weakClassifiers>
        <_>
          <internalNodes>
            0 -1 10 -1.4203420141711831e-03</internalNodes>
          <leafValues>
            -1. 3.8693466782569885e-01</leafValues></_></weakClassifiers></_>
    <!-- stage 10 -->
    <_>
      <maxWeakCount>2</maxWeakCount>
      <stageThreshold>-1.5640629827976227e-01</stageThreshold>
      <weakClassifiers>
        <_>
          <internalNodes>
            0 -1 14 1.6737993806600571e-02</internalNodes>
          <leafValues>
            -5.6097561120986938e-01 7.2881358861923218e-01</leafValues></_>
        <_>
          <internalNodes>
            0 -1 7 2.2560679353773594e-03</internalNodes>
          <leafValues>
            4.0456929802894592e-01 -1.</leafValues></_></weakClassifiers></_>
    <!-- stage 11 -->
    <_>
      <maxWeakCount>2</maxWeakCount>
      <stageThreshold>2.2589559853076935e-01</stageThreshold>
      <weakClassifiers>
        <_>
          <internalNodes>
            0 -1 24 2.0532641559839249e-02</internalNodes>
          <leafValues>
            -5.2808988094329834e-01 8.4615385532379150e-01</leafValues></_>
        <_>
          <internalNodes>
            0 -1 12 9.1681722551584244e-03</internalNodes>
          <leafValues>
            -5.0909996032714844e-01 7.5398546457290649e-01</leafValues></_></weakClassifiers></_>
    <!-- stage 12 -->
    <_>
      <maxWeakCount>2</maxWeakCount>
      <stageThreshold>-5.6644640862941742e-02</stageThreshold>
      <weakClassifiers>
        <_>
          <internalNodes>
            0 -1 20 -5.2914721891283989e-03</internalNodes>
          <leafValues>
            6.8595039844512939e-01 -5.5279505252838135e-01</leafValues></_>
        <_>
          <internalNodes>
            0 -1 27 -3.1665146350860596e-02</internalNodes>
          <leafValues>
            5.7092368602752686e-01 -7.4259507656097412e-01</leafValues></_></weakClassifiers></_>
    <!-- stage 13 -->
    <_>
      <maxWeakCount>1</maxWeakCount>
      <stageThreshold>3.4634146094322205e-01</stageThreshold>
      <weakClassifiers>
        <_>
          <internalNodes>
            0 -1 33 6.4538013248238713e-05</internalNodes>
          <leafValues>
            3.4634146094322205e-01 -1.</leafValues></_></weakClassifiers></_>
    <!-- stage 14 -->
    <_>
      <maxWeakCount>2</maxWeakCount>
      <stageThreshold>-2.7666550874710083e-01</stageThreshold>
      <weakClassifiers>
        <_>
          <internalNodes>
            0 -1 16 -2.8205360285937786e-03</internalNodes>
          <leafValues>
            5.2866244316101074e-01 -7.1200001239776611e-01</leafValues></_>
        <_>
          <internalNodes>
            0 -1 0 -2.0739223691634834e-04</internalNodes>
          <leafValues>
            -1. 4.3533450365066528e-01</leafValues></_></weakClassifiers></_>
    <!-- stage 15 -->
    <_>
      <maxWeakCount>2</maxWeakCount>
      <stageThreshold>-1.2212539464235306e-01</stageThreshold>
      <weakClassifiers>
        <_>
          <internalNodes>
            0 -1 28 -2.4398646783083677e-03</internalNodes>
          <leafValues>
            7.9439252614974976e-01 -5.1999998092651367e-01</leafValues></_>
        <_>
          <internalNodes>
            0 -1 1 9.0592202468542382e-06</internalNodes>
          <leafValues>
            3.9787459373474121e-01 -1.</leafValues></_></weakClassifiers></_>
    <!-- stage 16 -->
    <_>
      <maxWeakCount>3</maxWeakCount>
      <stageThreshold>4.8339867591857910e-01</stageThreshold>
      <weakClassifiers>
        <_>
          <internalNodes>
            0 -1 30 -1.1631716006377246e-05</internalNodes>
          <leafValues>
            6.5517240762710571e-01 -7.3722624778747559e-01</leafValues></_>
        <_>
          <internalNodes>
            0 -1 21 -6.0638569993898273e-04</internalNodes>
          <leafValues>
            -9.1705816984176636e-01 4.9109214544296265e-01</leafValues></_>
        <_>
          <internalNodes>
            0 -1 15 -7.9255260061472654e-05</internalNodes>
          <leafValues>
            7.4528443813323975e-01 -6.6281211376190186e-01</leafValues></_></weakClassifiers></_></stages>
  <features>
    <_>
      <rects>
        <_>
          0 0 2 18 -1.</_>
        <_>
          0 6 2 6 3.</_></rects>
      <tilted>0</tilted></_>
    <_>
      <rects>
        <_>
          0 1 3 8 -1.</_>
        <_>
          0 5 3 4 2.</_></rects>
      <tilted>0</tilted></_>
    <_>
      <rects>
        <_>
          0 1 18 18 -1.</_>
        <_>
          0 1 9 9 2.</_>
        <_>
          9 10 9 9 2.</_></rects>
      <tilted>0</tilted></_>
    <_>
      <rects>
        <_>
          0 6 6 16 -1.</_>
        <_>
          2 6 2 16 3.</_></rects>
      <tilted>0</tilted></_>
    <_>
      <rects>
        <_>
          0 7 22 4 -1.</_>
        <_>
          0 7 11 2 2.</_>
        <_>
          11 9 11 2 2.</_></rects>
      <tilted>0</tilted></_>
    <_>
      <rects>
        <_>
          0 19 9 4 -1.</_>
        <_>
          3 19 3 4 3.</_></rects>
      <tilted>0</tilted></_>
    <_>
      <rects>
        <_>
          0 23 6 4 -1.</_>
        <_>
          2 23 2 4 3.</_></rects>
      <tilted>0</tilted></_>
    <_>
      <rects>
        <_>
          0 29 28 1 -1.</_>
        <_>
          14 29 14 1 2.</_></rects>
      <tilted>0</tilted></_>
    <_>
      <rects>
        <_>
          1 6 2 21 -1.</_>
        <_>
          2 6 1 21 2.</_></rects>
      <tilted>0</tilted></_>
    <_>
      <rects>
        <_>
          2 0 18 18 -1.</_>
        <_>
          2 0 9 9 2.</_>
        <_>
          11 9 9 9 2.</_></rects>
      <tilted>0</tilted></_>
    <_>
      <rects>
        <_>
          2 27 28 1 -1.</_>
        <_>
          16 27 14 1 2.</_></rects>
      <tilted>0</tilted></_>
    <_>
      <rects>
        <_>
          3 0 27 29 -1.</_>
        <_>
          12 0 9 29 3.</_></rects>
      <tilted>0</tilted></_>
    <_>
      <rects>
        <_>
          3 1 8 8 -1.</_>
        <_>
          3 1 4 4 2.</_>
        <_>
          7 5 4 4 2.</_></rects>
      <tilted>0</tilted></_>
    <_>
      <rects>
        <_>
          3 29 21 1 -1.</_>
        <_>
          10 29 7 1 3.</_></rects>
      <tilted>0</tilted></_>
    <_>
      <rects>
        <_>
          5 7 14 4 -1.</_>
        <_>
          5 9 14 2 2.</_></rects>
      <tilted>0</tilted></_>
    <_>
      <rects>
        <_>
          6 16 3 6 -1.</_>
        <_>
          6 18 3 2 3.</_></rects>
      <tilted>0</tilted></_>
    <_>
      <rects>
        <_>
          6 20 12 4 -1.</_>
        <_>
          6 20 6 2 2.</_>
        <_>
          12 22 6 2 2.</_></rects>
      <tilted>0</tilted></_>
    <_>
      <rects>
        <_>
          8 7 1 6 -1.</_>
        <_>
          8 9 1 2 3.</_></rects>
      <tilted>0</tilted></_>
    <_>
      <rects>
        <_>
          8 10 3 5 -1.</_>
        <_>
          9 10 1 5 3.</_></rects>
      <tilted>0</tilted></_>
    <_>
      <rects>
        <_>
          10 13 2 12 -1.</_>
        <_>
          10 13 1 6 2.</_>
        <_>
          11 19 1 6 2.</_></rects>
      <tilted>0</tilted></_>
    <_>
      <rects>
        <_>
          11 19 9 6 -1.</_>
        <_>
          11 21 9 2 3.</_></rects>
      <tilted>0</tilted></_>
    <_>
      <rects>
        <_>
          12 3 6 10 -1.</_>
        <_>
          12 3 3 5 2.</_>
        <_>
          15 8 3 5 2.</_></rects>
      <tilted>0</tilted></_>
    <_>
      <rects>
        <_>
          12 8 8 2 -1.</_>
        <_>
          12 9 8 1 2.</_></rects>
      <tilted>0</tilted></_>
    <_>
      <rects>
        <_>
          13 6 2 8 -1.</_>
        <_>
          13 6 1 4 2.</_>
        <_>
          14 10 1 4 2.</_></rects>
      <tilted>0</tilted></_>
    <_>
      <rects>
        <_>
          13 7 5 6 -1.</_>
        <_>
          13 9 5 2 3.</_></rects>
      <tilted>0</tilted></_>
    <_>
      <rects>
        <_>
          13 9 5 6 -1.</_>
        <_>
          13 12 5 3 2.</_></rects>
      <tilted>0</tilted></_>
    <_>
      <rects>
        <_>
          13 15 4 6 -1.</_>
        <_>
          13 18 4 3 2.</_></rects>
      <tilted>0</tilted></_>
    <_>
      <rects>
        <_>
          14 0 16 30 -1.</_>
        <_>
          14 10 16 10 3.</_></rects>
      <tilted>0</tilted></_>
    <_>
      <rects>
        <_>
          14 4 14 2 -1.</_>
        <_>
          14 5 14 1 2.</_></rects>
      <tilted>0</tilted></_>
    <_>
      <rects>
        <_>
          14 6 3 9 -1.</_>
        <_>
          14 9 3 3 3.</_></rects>
      <tilted>0</tilted></_>
    <_>
      <rects>
        <_>
          14 17 3 3 -1.</_>
        <_>
          15 17 1 3 3.</_></rects>
      <tilted>0</tilted></_>
    <_>
      <rects>
        <_>
          15 8 6 2 -1.</_>
        <_>
          15 8 3 1 2.</_>
        <_>
          18 9 3 1 2.</_></rects>
      <tilted>0</tilted></_>
    <_>
      <rects>
        <_>
          24 7 1 4 -1.</_>
        <_>
          24 9 1 2 2.</_></rects>
      <tilted>0</tilted></_>
    <_>
      <rects>
        <_>
          29 0 1 9 -1.</_>
        <_>
          29 3 1 3 3.</_></rects>
      <tilted>0</tilted></_></features></cascade>
</opencv_storage>
